tree
version=v2
num_class=1
num_tree_per_iteration=1
label_index=0
max_feature_idx=22
objective=xentropy
feature_names=LIMIT_BAL SEX EDUCATION MARRIAGE AGE PAY_0 PAY_2 PAY_3 PAY_4 PAY_5 PAY_6 BILL_AMT1 BILL_AMT2 BILL_AMT3 BILL_AMT4 BILL_AMT5 BILL_AMT6 PAY_AMT1 PAY_AMT2 PAY_AMT3 PAY_AMT4 PAY_AMT5 PAY_AMT6
feature_infos=[10000:800000] 1:0 2:1:3:5:4:6:0 2:1:3:0 [21:79] 2:1:3:0:4:5:6:7:10:8:9 2:1:4:0:5:6:3:9:7:8 2:1:0:4:5:6:8:9:7:3 2:1:0:4:5:6:9:7:8 2:1:0:3:4:5:8:6:7 2:1:0:3:4:5:8:7:6 [-165580:746814] [-69777:743970] [-61506:855086] [-81334:628699] [-81334:823540] [-339603:699944] [0:873552] [0:1227082] [0:889043] [0:621000] [0:426529] [0:443001]
tree_sizes=2387 2394 2365 2366 2388 2383 2354 2341 2408 2407

Tree=0
num_leaves=30
num_cat=3
split_feature=5 6 19 0 11 14 9 20 18 16 0 21 11 11 18 19 22 11 4 18 11 18 0 22 15 4 19 18 16
split_gain=1458.75 359.729 109.136 43.8474 32.8202 18.4433 17.722 16.4103 14.3866 17.7511 15.229 13.4481 13.2972 12.9561 11.7336 14.1389 11.9246 11.1853 10.9381 10.2608 10.1468 9.1843 11.1917 8.95826 10.2576 8.84418 8.67991 8.676 8.62579
threshold=0 1 601.00000000000011 95000.000000000015 1.0000000180025095e-35 222.50000000000003 2 1.0000000180025095e-35 3136.5000000000005 129907.50000000001 155000.00000000003 21561.500000000004 2655.0000000000005 100442.50000000001 11506.000000000002 1.0000000180025095e-35 1222.5000000000002 992.50000000000011 45.500000000000007 1640.5000000000002 781.00000000000011 1.0000000180025095e-35 235000.00000000003 4099.5000000000009 29260.500000000004 53.500000000000007 348.50000000000006 607.50000000000011 14402.000000000002
decision_type=1 5 2 2 2 2 5 2 2 2 2 2 2 2 2 2 2 2 2 2 2 2 2 2 2 2 2 2 2
left_child=11 2 4 6 7 -6 -4 21 9 10 26 17 -5 -14 15 -7 -17 27 28 -8 -12 22 25 -19 -25 -2 -3 -1 -10
right_child=1 8 3 12 5 14 19 -9 18 -11 20 -13 13 -15 -16 16 -18 23 -20 -21 -22 -23 -24 24 -26 -27 -28 -29 -30
leaf_value=-1.0573311042011015 -1.2412243245386072 -1.0862933713353824 -1.2411396092875993 -1.330756311005993 -1.3301775746828304 -1.2281444124288319 -1.301996764970565 -1.3068432498429137 -1.3376536161052945 -0.9169113587708575 -1.022095358577122 -1.2314138913967292 -1.3778030229405183 -1.3473365191361366 -1.3855932501332586 -1.2740956011283742 -1.3566381786310238 -0.9856360596846192 -1.0810638767064118 -1.3377395936777077 -1.2646779681733882 -1.2945846545373412 -1.1491714612874946 -1.2057892622909014 -1.0245186736473142 -1.0267905139791842 -1.1539162596123851 -1.3013521982602267 -1.2095449737253992
leaf_count=70 500 322 266 1503 1522 565 1563 327 80 37 27 32 4285 2617 109 817 278 1648 63 2371 180 140 314 39 296 24 696 24 285
internal_value=0 -0.304563 -0.454326 -0.621562 -0.00616063 -0.187038 -0.33594 0.455543 1.15336 1.41689 1.34377 2.63782 -0.76366 -0.826809 0.0470999 0.118713 -0.106887 2.81943 0.69108 -0.388789 0.471022 0.671097 0.810666 2.8733 2.37004 0.51709 1.51074 1.63529 0.466833
internal_count=21000 18891 17201 12605 4596 3291 4200 1305 1690 1262 1225 2109 8405 6902 1769 1660 1095 2077 428 3934 207 978 838 1983 335 524 1018 94 365
cat_boundaries=0 1 2 3
cat_threshold=48 7 8
shrinkage=1


Tree=1
num_leaves=30
num_cat=4
split_feature=5 5 18 8 11 20 7 17 17 0 12 0 21 20 12 18 16 16 20 20 0 17 11 12 21 16 18 0 4
split_gain=1071.57 193.328 62.9768 43.339 34.666 23.1424 22.3146 17.457 12.8901 13.22 12.8195 12.3189 10.794 10.674 10.0929 9.89892 9.65655 9.58586 12.4207 9.38342 8.67782 8.37988 8.0629 8.61916 7.97924 7.76412 7.52128 8.37982 8.0333
threshold=0 1 1661.5000000000002 2 3805.0000000000005 4.5000000000000009 3 1420.5000000000002 750.50000000000011 95000.000000000015 28001.500000000004 45000.000000000007 726.50000000000011 3008.5000000000005 27272.000000000004 2200.5000000000005 1001.5000000000001 19762.000000000004 696.50000000000011 1491.0000000000002 75000.000000000015 3499.5000000000005 100442.50000000001 4791.5000000000009 18046.000000000004 -197.99999999999997 294.00000000000006 205000.00000000003 48.500000000000007
decision_type=1 1 2 5 2 2 5 2 2 2 2 2 2 2 2 2 2 2 2 2 2 2 2 2 2 2 2 2 2
left_child=2 24 6 8 5 16 7 13 15 -10 17 -6 19 -1 -13 -4 25 18 -8 -5 -9 -19 23 -11 -2 -3 27 28 -27
right_child=1 4 3 12 11 -7 10 20 9 22 -12 14 -14 -15 -16 -17 -18 21 -20 -21 -22 -23 -24 -25 -26 26 -28 -29 -30
leaf_value=-0.0018527428214961371 0.21776742364354817 0.22132622194127657 0.10504664917926113 0.033985325288951922 0.14750693996568029 -0.036542395792174887 0.097544112366447722 -0.025286778836240604 -0.049240168328068039 -0.056232506198231662 -0.024694405154292311 0.031156373749242735 0.0054279012592859908 -0.070790273479978655 0.10373382161193766 -0.033851360083839509 -0.032951746906799494 0.27115470164037969 -0.017729870565230024 0.1951846094285653 -0.068642963492702075 0.039134180659923967 -0.063553320069496252 -0.096507708723614624 0.061589903126975168 0.030744736465503908 -0.019508174892738653 0.13175491674879927 0.22868821630784952
leaf_count=2704 2066 36 79 81 438 491 282 989 2482 828 270 322 373 299 652 452 107 51 186 76 1223 30 2530 3282 43 280 100 219 29
internal_value=0 1.32737 -0.447136 -0.61764 0.644806 0.253294 -0.171654 -0.25114 -0.667776 -0.707226 0.340172 1.01939 0.308559 -0.0861962 0.811766 -0.156057 0.599283 0.692958 0.503333 1.0914 -0.489381 1.81114 -0.788999 -0.885388 2.05249 0.749233 0.660397 0.816608 0.465115
internal_count=21000 4783 16217 10183 2674 1262 6034 5215 9653 9122 819 1412 530 3003 974 531 771 549 468 157 2212 81 6640 4110 2109 664 628 528 309
cat_boundaries=0 1 2 3 4
cat_threshold=7 48 7 7
shrinkage=0.1


Tree=2
num_leaves=30
num_cat=7
split_feature=5 5 18 8 8 7 22 17 6 17 0 17 20 21 12 18 0 0 4 0 3 21 11 11 11 18 0 21 21
split_gain=832.08 138.526 55.1844 37.0921 25.4027 18.4153 15.4763 15.0978 13.8626 11.4925 12.2005 9.35392 9.12945 9.05757 8.01781 7.75288 7.74014 7.55067 7.52587 7.49349 7.03456 6.71458 6.68394 6.58076 6.3373 6.60111 6.55243 6.27435 7.08966
threshold=0 1 1661.5000000000002 2 3 4 156.50000000000003 1420.5000000000002 5 750.50000000000011 95000.000000000015 3499.5000000000005 3008.5000000000005 7000.5000000000009 302249.50000000006 2200.5000000000005 25000.000000000004 75000.000000000015 45.500000000000007 45000.000000000007 6 1430.5000000000002 23583.000000000004 530.50000000000011 78111.500000000015 3000.5000000000005 323840.00000000006 5051.0000000000009 726.50000000000011
decision_type=1 1 2 5 5 5 2 2 5 2 2 2 2 2 2 2 2 2 2 2 1 2 2 2 2 2 2 2 2
left_child=2 4 5 9 18 11 19 12 -8 15 20 -1 -7 27 -12 -4 -13 -9 -2 -6 -11 -20 -22 -3 25 26 -21 28 -5
right_child=1 23 3 13 6 7 8 17 -10 10 14 16 -14 -15 -16 -17 -18 -19 21 24 22 -23 -24 -25 -26 -27 -28 -29 -30
leaf_value=0.069355682570202679 0.11433019337075832 0.075294281087445306 0.088950328088103756 0.092173445190661174 0.12482590022839023 -0.0016100271035875508 -0.036032374845623577 -0.023562614939084486 0.034048042600531077 -0.061431062994238721 -0.077033896912611727 0.1351374566377205 -0.066584377321773705 -0.10288092942830446 -0.0090958816397084426 -0.031109861010029594 -0.022942458114130291 -0.06449910970010006 0.28550937950621419 0.038321083661413333 -0.069319032619936216 0.12028433911240695 -0.006065353760402065 0.17896759461509537 0.19527162211949392 -0.052976050754917937 0.12084324539521347 0.21775756071776767 0.0066063132339671971
leaf_count=431 458 67 79 157 164 2705 471 992 599 1435 6417 35 299 50 223 452 349 1223 49 600 283 40 764 2098 33 82 122 23 300
internal_value=0 1.12063 -0.414568 -0.578503 0.533367 -0.156747 0.314846 -0.230331 0.0518091 -0.627182 -0.665819 0.3044 -0.0775629 0.271776 -0.746815 -0.142468 -0.0526168 -0.455828 1.11423 0.628333 -0.456963 2.10579 -0.235132 1.68798 0.494777 0.436404 0.53183 0.467351 0.383128
internal_count=21000 4783 16217 10183 2618 6034 2071 5219 1070 9653 9122 815 3004 530 6640 531 384 2215 547 1001 2482 89 1047 2165 837 804 722 480 457
cat_boundaries=0 1 2 3 4 5 6 7
cat_threshold=7 1160 7 16 48 3 4
shrinkage=0.1


Tree=3
num_leaves=30
num_cat=8
split_feature=5 5 19 10 0 8 10 17 6 11 18 16 22 11 11 22 19 8 18 6 19 20 0 12 11 0 17 12 15
split_gain=656.619 100.138 48.6 35.0689 25.1562 18.502 13.2939 12.0715 11.1575 13.5383 9.5777 9.35195 9.90936 9.3058 9.82642 8.64944 10.1987 7.59256 9.02246 9.31316 6.73568 6.58494 6.40152 7.76506 6.35834 12.0585 6.04984 6.03561 6.02913
threshold=0 1 852.50000000000011 2 95000.000000000015 3 4 4000.5000000000005 5 6411.0000000000009 3845.0000000000005 8717.5000000000018 250.50000000000003 2655.0000000000005 100442.50000000001 2477.0000000000005 1170.5000000000002 6 2300.5000000000005 7 2978.5000000000005 2237.0000000000005 45000.000000000007 330.50000000000006 489.00000000000006 465000.00000000006 1151.5000000000002 27637.000000000004 898.50000000000011
decision_type=1 1 2 5 2 5 5 2 5 2 2 2 2 2 2 2 2 5 2 5 2 2 2 2 2 2 2 2 2
left_child=2 5 7 4 10 -2 8 17 28 -10 26 12 22 -6 -15 16 -13 18 19 24 -16 -5 -8 -24 25 -1 -4 -11 -7
right_child=1 -3 3 21 13 6 11 -9 9 27 -12 15 -14 14 20 -17 -18 -19 -20 -21 -22 -23 23 -25 -26 -27 -28 -29 -30
leaf_value=0.011797224847822705 0.094940901158029639 0.14300259834926085 0.030645875969445166 0.06829981466677254 -0.037526694788895636 0.0070660969168108148 0.16536516481625718 -0.049841468239237512 0.19534795537891461 -0.022054494436654914 -0.075532101091702109 0.069360808168700563 -0.046299157486588582 -0.08460996595742927 0.0019123144075808088 -0.025067026136194055 0.24367469113696197 0.03708408764321449 -0.054316097212717795 0.064600807234962004 -0.061761803017358965 -0.0028497121843253071 0.068540029402808872 -0.043140206178070073 -0.017479624145701995 0.27936292825071851 -0.028579133016604287 0.046554734731968972 -0.064260911132294291
leaf_count=887 547 2165 222 303 1098 238 58 727 51 212 532 58 111 4069 252 32 77 412 432 114 2243 327 434 83 1810 20 2769 348 369
internal_value=0 0.96415 -0.383971 -0.510882 -0.555358 0.466525 0.278196 -0.0808846 0.032118 0.300837 -0.317036 0.569577 0.467759 -0.681306 -0.733919 1.31258 1.64866 -0.00258815 -0.0638939 0.00277732 -0.556301 0.27759 0.633599 0.518427 -0.0532119 0.177477 -0.23958 0.209649 -0.290728
internal_count=21000 4783 16217 11815 11185 2618 2071 4402 1218 611 3523 853 686 7662 6564 167 135 3675 3263 2831 2495 630 575 517 2717 907 2991 560 607
cat_boundaries=0 1 2 3 4 5 6 7 8
cat_threshold=7 1160 7 16 6 3 7 7
shrinkage=0.1


Tree=4
num_leaves=30
num_cat=5
split_feature=5 5 18 8 6 8 0 19 22 0 11 0 12 0 0 17 21 11 0 11 20 11 19 13 13 18 17 18 21
split_gain=527.814 75.9822 43.0498 28.6311 14.9977 14.8561 13.8281 10.5113 10.3336 10.9812 10.3336 10.4974 9.85338 9.12173 7.66975 7.24373 7.20735 6.55162 8.05019 6.48571 6.435 19.3031 6.37592 7.589 6.31952 6.0419 6.00646 5.93369 6.08661
threshold=0 1 1661.5000000000002 2 3 4 25000.000000000004 559.50000000000011 326.50000000000006 125000.00000000001 2655.0000000000005 145000.00000000003 223192.50000000003 165000.00000000003 125000.00000000001 4500.5000000000009 7000.5000000000009 489.00000000000006 465000.00000000006 417.50000000000006 18800.500000000004 74538.000000000015 301.50000000000006 29890.500000000004 781.00000000000011 67.500000000000014 1934.5000000000002 2006.5000000000002 1000.5000000000001
decision_type=1 1 2 5 5 5 2 2 2 2 2 2 2 2 2 2 2 2 2 2 2 2 2 2 2 2 2 2 2
left_child=2 5 4 10 6 -2 -1 17 -7 15 27 20 -13 -9 -6 22 -5 18 19 -8 -12 -22 -10 26 -19 -16 -24 28 -4
right_child=1 -3 3 16 14 8 7 13 9 -11 11 12 -14 -15 25 -17 -18 24 -20 -21 21 -23 23 -25 -26 -27 -28 -29 -30
leaf_value=0.02593733495223817 0.083833416218549894 0.12436293990187425 0.17062650107284058 0.039635401204330289 0.15812761111444162 0.047964331017125043 0.0060516190791487364 -0.022123596309039498 0.16139393663620047 -0.034427593048045289 -0.047660679766141807 -0.077453786361478802 -0.026803889538422877 -0.063804018299778817 -0.058385793522660948 -0.11484683309793751 -0.098025533512802507 -0.039370722065879188 0.21599070754933558 0.1688003665589809 -0.061408413567746456 0.3370758659560289 -0.025292165931595813 0.079288705812609397 0.0092268462759085047 0.10850708494020311 0.16106704004535813 -0.030535829873976152 -0.0080001411930738769
leaf_count=773 547 2165 44 480 104 1057 789 1693 54 508 3568 4460 578 1133 45 39 50 886 20 25 53 22 208 185 516 50 20 863 65
internal_value=0 0.846578 -0.354514 -0.506645 -0.126568 0.414601 -0.163108 -0.23519 0.246088 0.014559 -0.553138 -0.601852 -0.713514 -0.38242 0.600489 0.351139 0.232215 -0.0599412 0.175445 0.119328 -0.45415 0.591576 0.454099 0.328881 -0.209588 0.266551 -0.0838881 -0.205087 0.603434
internal_count=21000 4783 16217 10183 6034 2618 5835 5062 2071 1014 9653 8681 5038 2826 199 506 530 2236 834 814 3643 75 467 413 1402 95 228 972 109
cat_boundaries=0 1 2 3 4 5
cat_threshold=7 1160 7 7 16
shrinkage=0.1


Tree=5
num_leaves=30
num_cat=6
split_feature=5 6 17 10 19 20 7 0 11 3 17 11 17 19 11 7 4 16 17 18 0 17 18 15 11 20 21 19 15
split_gain=427.528 61.4232 37.4863 26.9924 25.0853 15.3123 10.8696 10.4898 11.966 9.24498 8.41647 16.6805 8.12923 7.60519 7.38034 8.09864 7.15915 7.35763 7.03865 6.7447 6.86233 6.91713 6.89049 6.25026 6.15513 6.34155 6.12815 7.45458 6.11066
threshold=0 1 3766.5000000000005 2 601.00000000000011 1.0000000180025095e-35 3 95000.000000000015 6875.5000000000009 4 1329.5000000000002 6228.5000000000009 1.0000000180025095e-35 7803.5000000000009 8680.0000000000018 5 25.500000000000004 1001.5000000000001 3500.5000000000005 1123.5000000000002 165000.00000000003 1752.0000000000002 3693.0000000000005 11780.500000000002 102278.00000000001 3603.0000000000005 1989.5000000000002 10903.500000000002 1307.5000000000002
decision_type=1 5 2 5 2 2 5 2 2 1 2 2 2 2 2 5 2 2 2 2 2 2 2 2 2 2 2 2 2
left_child=2 5 3 4 14 16 -4 18 -9 19 11 -3 -13 -12 15 28 -2 -18 -6 -5 21 -21 -23 -16 -10 -26 -15 -28 -1
right_child=1 10 6 9 7 -7 -8 8 24 -11 13 12 -14 26 23 -17 17 -19 -20 20 -22 22 -24 -25 25 -27 27 -29 -30
leaf_value=0.0096917394190948695 0.13644107752221782 0.14306310349312673 0.0053086525617486412 0.21513856635996881 -0.026648544506432077 -0.034642861217673092 -0.059830767888164799 -0.027708026712429668 -0.080530986219570486 0.020943719570998276 0.11777933465856388 0.081133395921129642 0.027632258115231925 -0.06458567038351104 -0.043955798000848784 0.052744748844761005 0.041030697122887677 -0.052045779223749658 0.093137390846265808 0.19638305151307323 -0.083977425704407527 -0.018499872282080197 0.18950393578506686 0.014466219899709041 -0.043418979449827366 0.14647482367511719 -0.0033138487647201365 0.15625490385820653 -0.045992550309494035
leaf_count=1430 74 302 428 58 3100 582 5849 1333 1743 333 1541 1080 324 30 663 313 638 105 64 54 29 55 28 316 87 37 51 56 297
internal_value=0 0.749329 -0.327674 -0.197159 -0.244544 0.105442 -0.561 -0.384555 -0.540886 0.4758 0.950451 0.826272 0.683076 1.12019 0.00501978 0.122254 0.3768 0.286746 -0.242165 1.10523 0.774378 1.06155 0.451579 -0.242265 -0.742818 0.0313083 0.449982 0.808659 0.0056686
internal_count=21000 4783 16217 9940 9383 1399 6277 6364 3200 557 3384 1706 1404 1678 3019 2040 817 743 3164 224 166 137 83 979 1867 124 137 107 1727
cat_boundaries=0 1 2 3 4 5 6
cat_threshold=7 139 7 48 2 3
shrinkage=0.1


Tree=6
num_leaves=30
num_cat=8
split_feature=5 5 19 7 10 17 8 0 20 0 3 0 4 12 11 14 13 13 12 0 4 6 15 19 3 14 15 22 0
split_gain=344.67 53.2773 33.3951 19.5125 13.0542 12.8056 11.059 10.0957 7.75373 7.43424 7.34632 6.74958 9.36716 7.50264 6.67197 6.97104 6.51968 7.50243 6.60963 6.4715 6.31206 6.58817 10.0857 6.2878 6.27535 8.08548 7.1393 6.62006 7.18944
threshold=0 1 2648.0000000000005 2 3 1315.5000000000002 4 75000.000000000015 356.50000000000006 285000.00000000006 5 55000.000000000007 51.500000000000007 223192.50000000003 1512.5000000000002 73346.000000000015 18407.000000000004 36787.000000000007 64017.000000000007 45000.000000000007 60.500000000000007 6 2930.0000000000005 1368.0000000000002 7 58218.000000000007 28877.500000000004 11965.500000000002 45000.000000000007
decision_type=1 1 2 5 5 2 5 2 2 2 1 2 2 2 2 2 2 2 2 2 2 5 2 2 1 2 2 2 2
left_child=2 6 3 5 16 20 -2 24 9 23 -10 12 -6 -13 -9 -16 -4 -18 -19 -8 21 22 -1 -5 25 27 -26 28 -7
right_child=1 -3 4 8 11 7 19 14 10 -11 -12 13 -14 -15 15 -17 17 18 -20 -21 -22 -23 -24 -25 26 -27 -28 -29 -30
leaf_value=0.047499385330379083 -0.014862816577247105 0.098592437244430786 -0.066237068654720205 0.081698982962020231 -0.027043709691681045 0.039751401320698855 0.072825139979440609 0.00077879440772207309 -0.02559937530925413 -0.079854981659922122 0.064783710272647108 -0.064067090158722945 0.18814801825522445 -0.018622143468890549 -0.058240388158537652 0.029790770630063926 0.19881318475795851 -0.080259819846363545 0.063314219389070878 0.032501180607028328 0.16948627584549952 -0.010045657633851124 0.29454651181952451 0.22501367725185561 -0.017099897262337151 0.21440756882579645 -0.075793255035570606 0.19166870498657004 -0.027193909921899267
leaf_count=92 494 2165 62 161 440 304 478 351 227 24 192 5461 26 567 2692 130 34 53 170 1646 23 2999 30 51 1132 23 355 26 592
internal_value=0 0.662295 -0.30239 -0.170694 -0.513407 -0.217659 0.311086 -0.330872 0.356144 0.91048 0.14208 -0.546861 -0.137935 -0.595557 -0.476948 -0.539611 0.189163 0.531935 0.276826 0.403044 -0.0468188 -0.0608143 0.489545 1.12251 -0.162298 0.0659174 -0.306767 0.0131853 -0.0351472
internal_count=21000 4783 16217 9404 6813 8749 2618 5605 655 236 419 6494 466 6028 3173 2822 319 257 223 2124 3144 3121 122 212 2432 945 1487 922 896
cat_boundaries=0 1 2 3 4 5 6 7 8
cat_threshold=7 1160 7 8 2 4 16 2
shrinkage=0.1


Tree=7
num_leaves=30
num_cat=8
split_feature=5 5 17 10 11 0 20 8 0 7 6 0 14 21 17 22 3 20 1 12 19 12 20 18 17 0 11 12 0
split_gain=280.419 43.5955 30.3792 20.1428 20.6932 14.5606 11.3089 10.728 8.59632 8.59346 8.40676 8.279 7.79401 11.3332 6.6418 6.80796 6.2231 6.17258 7.56665 5.7669 7.74924 6.56373 7.49145 6.9234 5.72079 5.53053 6.41123 6.21127 5.49517
threshold=0 1 3766.5000000000005 2 8680.0000000000018 95000.000000000015 517.50000000000011 3 25000.000000000004 4 5 35000.000000000007 50395.500000000007 1017.5000000000001 1719.5000000000002 60.500000000000007 6 3675.0000000000005 7 109577.50000000001 3148.5000000000005 5174.5000000000009 183.50000000000003 7475.5000000000009 1151.5000000000002 295000.00000000006 4127.0000000000009 4376.0000000000009 75000.000000000015
decision_type=1 1 2 5 2 2 2 5 2 5 5 2 2 2 2 2 1 2 1 2 2 2 2 2 2 2 2 2 2
left_child=2 7 3 4 6 -6 8 10 14 -4 -2 -9 13 -13 15 -1 -5 -14 -19 20 21 22 -11 25 -17 26 27 -24 -23
right_child=1 -3 9 16 5 -7 -8 11 -10 19 -12 12 17 -15 -16 24 -18 18 -20 -21 -22 28 23 -25 -26 -27 -28 -29 -30
leaf_value=-0.017880027119141124 -0.025067922140894684 0.088197696953942195 0.0046619348002064414 0.091268566769798831 -0.021797594083114172 -0.062358878331257361 -0.023722945497210789 0.09861175108223609 0.007505675069989233 -0.092754764427934094 0.02393746830483906 0.043709490943723062 0.14155878379137796 -0.043748923260559847 0.20918368656892153 0.18490945425988947 0.019119146291902575 -0.085439004732292004 0.11021655317183324 -0.039236210792821961 -0.081249320111794671 -0.0067659225291593671 -0.018344041136614274 -0.1061695987410845 -0.0099676220511040851 -0.043787374951317883 0.33246553036817944 0.24260279927756492 -0.065873459742031779
leaf_count=84 581 2165 428 224 3238 2130 1800 242 2011 56 760 684 94 190 41 52 333 26 41 2246 2005 261 38 26 27 25 23 21 1148
internal_value=0 0.59084 -0.2789 -0.161125 -0.204048 -0.362257 -0.0172187 0.275914 0.145398 -0.49764 0.0532676 0.468567 0.376861 0.249707 0.817792 0.514929 0.411433 0.946173 0.277213 -0.533291 -0.644393 -0.448598 0.23301 0.749255 1.22059 1.19101 1.67904 0.951268 -0.537137
internal_count=21000 4783 16217 9940 9383 5368 4015 2618 2215 6277 1341 1277 1035 874 204 163 557 161 67 5849 3603 1598 189 133 79 107 82 59 1409
cat_boundaries=0 1 2 3 4 5 6 7 8
cat_threshold=7 1160 7 70 48 3 2 2
shrinkage=0.1


Tree=8
num_leaves=30
num_cat=5
split_feature=5 5 8 18 11 7 22 22 6 0 18 13 11 0 12 18 11 16 18 0 20 20 16 0 17 21 20 22 18
split_gain=228.841 35.8725 27.7835 27.5523 11.3602 9.01549 8.09525 7.62603 7.45254 7.16091 6.49439 8.41068 7.03687 7.76017 6.80565 5.6683 5.58763 7.26934 5.51241 5.47867 6.21387 6.29121 5.2214 5.35096 5.0428 4.80114 4.69257 4.67435 4.41794
threshold=0 1 2 2000.5000000000002 19600.000000000004 3 156.50000000000003 3297.0000000000005 4 115000.00000000001 9940.5000000000018 298036.50000000006 1459.5000000000002 245000.00000000003 242307.00000000003 11506.000000000002 196170.00000000003 120578.00000000001 9000.5000000000018 13000.000000000002 1.0000000180025095e-35 300.50000000000006 -197.99999999999997 25000.000000000004 10095.500000000002 18046.000000000004 8000.5000000000009 390.50000000000006 15001.000000000002
decision_type=1 1 5 2 2 5 2 2 5 2 2 2 2 2 2 2 2 2 2 2 2 2 2 2 2 2 2 2 2
left_child=2 5 3 4 7 6 22 8 19 -6 12 -12 -5 16 -15 18 -14 -18 -4 27 -21 -22 -2 -24 -16 -3 -26 -1 -13
right_child=1 25 15 10 9 -7 -8 -9 -10 -11 11 28 13 14 24 -17 17 -19 -20 20 21 -23 23 -25 26 -27 -28 -29 -30
leaf_value=0.013561773268200301 0.1451295102784966 0.084103467616074123 0.037461239367815882 0.010397474752987744 -0.021870662528835141 0.049128890937153336 -0.012198087918478645 -0.043781769126388918 0.053115430380108901 -0.065573277586124343 -0.073949683883358833 0.062780901637932263 -0.037874506467617718 -0.076616481081532059 -0.07154328537215536 -0.078972454238461526 -0.091600642309632843 0.094288763022143285 0.18338837610595782 0.013327583469031928 -0.068675820994866271 -0.01052645398092188 0.097260122720381648 0.017255901769117496 0.023348892409869249 -0.015503613051883365 0.25910856775924174 0.13210917246792148 -0.047093459787847014
leaf_count=108 35 2118 720 372 1728 783 926 584 160 838 1940 104 4147 1379 39 47 45 114 31 1307 257 2078 79 795 32 47 22 57 108
internal_value=0 0.529665 -0.256795 -0.298058 -0.142278 0.245889 0.0967588 -0.0398661 0.0131609 -0.346816 -0.462691 -0.652288 -0.398216 -0.43356 -0.689248 0.319828 -0.351618 0.382734 0.432477 -0.0300247 -0.0608868 -0.171623 0.309234 0.25884 0.295047 0.793074 1.061 0.573716 0.0630691
internal_count=21000 4783 16217 15419 7117 2618 1835 4551 3967 2566 8302 2152 6150 5778 1472 798 4306 159 751 3807 3642 2335 909 874 93 2165 54 165 212
cat_boundaries=0 1 2 3 4 5
cat_threshold=7 1160 7 71 7
shrinkage=0.1


Tree=9
num_leaves=30
num_cat=5
split_feature=5 6 17 10 19 0 20 15 11 12 11 7 22 4 16 10 11 17 12 0 22 12 12 19 20 0 14 22 14
split_gain=186.622 31.3596 24.3314 16.8684 10.9888 11.0635 10.671 9.38106 9.26711 8.25207 7.01994 6.76556 6.58615 6.88105 7.76294 6.87543 6.95234 9.02208 6.37013 6.15938 6.07329 5.72874 5.59554 6.19261 5.65567 5.37391 5.47374 5.96834 7.26382
threshold=0 1 3979.0000000000005 2 601.00000000000011 95000.000000000015 1.0000000180025095e-35 13978.000000000002 8680.0000000000018 -348.49999999999994 26358.500000000004 3 4099.5000000000009 38.500000000000007 41675.500000000007 4 6228.5000000000009 1964.5000000000002 9705.0000000000018 155000.00000000003 1647.5000000000002 78836.500000000015 137956.50000000003 4501.5000000000009 58289.000000000007 55000.000000000007 18759.500000000004 962.50000000000011 16752.500000000004
decision_type=1 5 2 5 2 2 2 2 2 2 2 5 2 2 2 5 2 2 2 2 2 2 2 2 2 2 2 2 2
left_child=2 6 3 4 20 21 -2 8 9 -5 18 -4 15 14 -14 16 -3 19 -9 -18 -1 -6 23 24 -13 26 27 28 -20
right_child=1 12 11 7 5 -7 -8 10 -10 -11 -12 22 13 -15 -16 -17 17 -19 25 -21 -22 -23 -24 -25 -26 -27 -28 -29 -30
leaf_value=0.0052677972066809305 0.024167089123539591 0.1040534080359784 0.0044152962275658941 0.26118573453699362 -0.0214114049609169 -0.054604125351749758 -0.03593462674363794 0.0083271458350683922 -0.045467162682742382 0.0096430133001579911 0.0075034465092639994 -0.045864851175882348 -0.065509766933962654 0.082165571821066666 0.034248223244291325 0.088948955116591469 0.032506373111538339 0.072310532621898918 0.09859085450265255 -0.051638374686087986 -0.046036720073880752 0.077084955624982299 -0.029614699446741985 -0.075527981640494318 0.12379907474120105 0.20404793429239604 0.017313318615626978 0.018771417750635861 0.35977053272247739
leaf_count=1766 817 157 414 21 2769 2367 582 114 522 1664 267 2162 85 183 289 1196 863 527 24 84 353 87 1636 1863 36 46 66 20 20
internal_value=0 0.475677 -0.235798 -0.132564 -0.225433 -0.331522 0.0284482 0.104984 -0.00134354 0.121822 0.506633 -0.443391 0.614192 0.341917 0.126779 0.685664 0.466618 0.425925 0.856028 0.25279 -0.0263419 -0.185656 -0.477549 -0.573759 -0.434166 1.17646 0.834441 1.46978 2.1704
internal_count=21000 4783 16217 10106 7342 5223 1399 2764 2207 1685 557 6111 3384 557 374 2827 1631 1474 290 947 2119 2856 5697 4061 2198 176 130 64 44
cat_boundaries=0 1 2 3 4 5
cat_threshold=7 139 5 48 294
shrinkage=0.1


end of trees

feature importances:
LIMIT_BAL=40
BILL_AMT1=31
PAY_AMT2=24
PAY_AMT1=22
PAY_AMT4=19
PAY_0=17
BILL_AMT2=17
PAY_AMT3=16
PAY_AMT6=14
PAY_AMT5=12
PAY_2=10
PAY_4=10
BILL_AMT6=10
AGE=8
PAY_3=8
PAY_6=7
BILL_AMT5=7
BILL_AMT4=6
MARRIAGE=5
BILL_AMT3=5
SEX=1
PAY_5=1

parameters:
[boosting: gbdt]
[objective: cross_entropy]
[metric: auc,rmse,binary_error]
[tree_learner: serial]
[device_type: cpu]
[data: ]
[valid: ]
[num_iterations: 100]
[learning_rate: 0.1]
[num_leaves: 30]
[num_threads: 0]
[max_depth: -1]
[min_data_in_leaf: 20]
[min_sum_hessian_in_leaf: 0.001]
[bagging_fraction: 1]
[bagging_freq: 0]
[bagging_seed: 3]
[feature_fraction: 1]
[feature_fraction_seed: 2]
[early_stopping_round: 0]
[max_delta_step: 0]
[lambda_l1: 0]
[lambda_l2: 0]
[min_gain_to_split: 0]
[drop_rate: 0.1]
[max_drop: 50]
[skip_drop: 0.5]
[xgboost_dart_mode: 0]
[uniform_drop: 0]
[drop_seed: 4]
[top_rate: 0.2]
[other_rate: 0.1]
[min_data_per_group: 100]
[max_cat_threshold: 32]
[cat_l2: 10]
[cat_smooth: 10]
[max_cat_to_onehot: 4]
[top_k: 20]
[monotone_constraints: ]
[feature_contri: ]
[forcedsplits_filename: ]
[refit_decay_rate: 0.9]
[verbosity: 1]
[max_bin: 255]
[min_data_in_bin: 3]
[bin_construct_sample_cnt: 200000]
[histogram_pool_size: -1]
[data_random_seed: 1]
[output_model: LightGBM_model.txt]
[snapshot_freq: -1]
[input_model: ]
[output_result: LightGBM_predict_result.txt]
[initscore_filename: ]
[valid_data_initscores: ]
[pre_partition: 0]
[enable_bundle: 1]
[max_conflict_rate: 0]
[is_enable_sparse: 1]
[sparse_threshold: 0.8]
[use_missing: 1]
[zero_as_missing: 0]
[two_round: 0]
[save_binary: 0]
[enable_load_from_binary_file: 1]
[header: 0]
[label_column: ]
[weight_column: ]
[group_column: ]
[ignore_column: ]
[categorical_feature: ]
[predict_raw_score: 0]
[predict_leaf_index: 0]
[predict_contrib: 0]
[num_iteration_predict: -1]
[pred_early_stop: 0]
[pred_early_stop_freq: 10]
[pred_early_stop_margin: 10]
[convert_model_language: ]
[convert_model: gbdt_prediction.cpp]
[num_class: 1]
[is_unbalance: 0]
[scale_pos_weight: 1]
[sigmoid: 1]
[boost_from_average: 1]
[reg_sqrt: 0]
[alpha: 0.9]
[fair_c: 1]
[poisson_max_delta_step: 0.7]
[tweedie_variance_power: 1.5]
[max_position: 20]
[label_gain: ]
[metric_freq: 1]
[is_provide_training_metric: 0]
[eval_at: ]
[num_machines: 1]
[local_listen_port: 12400]
[time_out: 120]
[machine_list_filename: ]
[machines: ]
[gpu_platform_id: -1]
[gpu_device_id: -1]
[gpu_use_dp: 0]

end of parameters

pandas_categorical:[[1, 2], [0, 1, 2, 3, 4, 5, 6], [0, 1, 2, 3], [-2, -1, 0, 1, 2, 3, 4, 5, 6, 7, 8], [-2, -1, 0, 1, 2, 3, 4, 5, 6, 7, 8], [-2, -1, 0, 1, 2, 3, 4, 5, 6, 7, 8], [-2, -1, 0, 1, 2, 3, 4, 5, 6, 7, 8], [-2, -1, 0, 2, 3, 4, 5, 6, 7, 8], [-2, -1, 0, 2, 3, 4, 5, 6, 7, 8]]
